-5.955490187245189,1.9765072877279384,-5.125819684186921,0.5141615492889211,1.9516779258275783,-2.3543517863378094,3.2566987678713755,6.866374772629428,0.31492563195452916,1.2346150856555085,-7.563095527583043,6.090062971518538,-0.8605944745239642,-1.5895267154568813,-3.233605338717501,2.6604744051667555,-2.2592444042467434,-5.537205533772085,-2.255529967132247,-0.8618084915505646,1.5495512067670412,-4.004380434026541,-0.653331812856212,10.49282745830806,1.1032403344084865,8.523119920097068,8.987383694093639,-5.526745754843973,0.23340049442844665,2.097521017887152,-1.5851297921783039,-6.8842879028408905,-3.2209588468020467,3.3153970598778573,-0.2506133986233938,0.09131934854105168,-3.96878206680881,11.774478878818464,3.042221403060995,-3.726266760834785,1.1967628416860268,-2.1573858109855237,8.628372507704597,-4.046809614335116,2.0740762472580143,1.5489693477276687,7.666490002678495,-3.1242029024699423,5.875147468054858,-2.1197850859398657,-5.105632709301901,3.225070125302543,0.9324246505635849,-6.51059880134821,0.9585078212634276,-7.762700324601793,7.062013420172916,10.13734746934618,6.7839070868840965,-9.55556548009061,-9.977974131064121,-0.07536242701354198,-4.974509007201399,-10.543547622392028,-4.07907425833599,-8.839144635026548,5.840031338726421,9.24343379040953,-3.390542212053775,9.419336037603722,-2.4849087595802275,-6.500105918655889,-7.077495629129332,-11.09869551445033,4.685138826228052,7.220936979369192,-14.390080886891308,4.532086525615748,-6.479838314572406,-1.7407454112671235,-7.604486704347922,-10.600563972695642,9.257202560816676,12.473163668114912,-7.212026852211099
3.1620584371341257E-4
