1.3611757162768976,-6.799640815133273,-0.8023635018446289,-3.7037882118107763,-11.701664457078792,2.9072481968796056,2.500929949689495,-1.922833943598779,1.024854391667907,2.1331708215100575,0.270292045937799,0.7650172860537684,-3.032904994085268,5.237674252631638,-4.255962710443991,0.47961728486983374,6.13333510426751,-5.103774400806801,-2.783047162761613,2.6578404942381644,-4.285937483347727,4.814999838565934,-6.741832426731193,-3.0162500220225255,-9.198894031769077,0.007001128869669415,-8.78119619515682,3.1325935771812405,4.895048979976638,4.359570714256894,2.2831321775581404,4.453371652871584,1.8885756182583864,4.793775570169708,-1.41245561309838,1.112291903932541,-2.212304484792864,9.645476709723233,2.443405281826434,-3.0678929980908354,0.916560464201955,-2.7048464661674716,6.619400497040647,-3.320722211554228,4.131976598349163,4.637596681874061,1.1071232870311054,6.961345945831792,2.8864095447010123,-9.504541897931283,4.684111699941238,-2.602212791029827,-1.3103009019462353,-5.537626043942426,-5.609278782917582,-2.6333351057363714,-9.577803930972284,-10.908654477494336,4.599029528566011,7.30625749449541,-4.744579835897607,11.033483768386557,-3.052929238904132,6.291478465539098,-7.957067790925003,-4.86109130361904,-7.056000703616491,-12.91817513632668,-7.2964826905291345,7.689795573874412,-4.804177163337327,3.8517008213355295,-4.361144457110106,-7.6227179216903815,11.548395964525984,-4.923536714199666,-11.714938673320091,6.398919373921891,-5.723862356971006,2.3338502239650903E-4,2.8667602391761107,-11.359234698524821,10.16319720626698,-15.072294416548699,-0.6387564631144961
1.16020181905198E-4
