-0.7511942790877697,1.1187616006581018,-2.811279577388989,4.028892721749742,-1.3540694794977932,1.8249683934089695,3.535729727084936,-4.553334505349928,-1.4761772386298333,5.1721212288764375,-1.048924552381633,-1.6208645555826395,3.5286175044419217,-1.193551279649759,1.8552447372325989,6.299026698955106,-0.6801609729115561,-0.4799070573871935,1.676798247634386,-1.3535342729330597,0.5438897645683974,-1.3473333982689888,-2.6553896018625176,0.8840445677800904,-4.951911641254451,2.4780676461731175,-3.005826522349337,0.9584041507226146,1.6194432586350094,4.782353342926301,-0.008382525203742023,3.7041178232000065,-0.36574503734695357,-0.3540397985092724,-5.169955332224419,1.3097546919551826,-2.6648019788774855,-1.4394932637456794,5.751719048309917,-0.6622616403784046,-1.5028327728465218,-1.084852783599626,7.715605726535919,2.5712113851413094,-6.340988721896428,0.43520859464931605,-0.39328371708289567,3.119601824403741,-4.513718464868917,-1.1531110700311658,2.8007526747754645,2.0823902505879333,1.6910800700106332,-4.086359701758938,1.9484116207390971,5.373472366485088,5.90165221833672,0.12919901665302738,-5.442641325366358,-10.944316611408652,-2.0405711914539886,5.115987611261382,-9.850787392721509,3.321281054954763,-0.09301394016030624,1.6204310756917393,-3.3036369617895134,-0.3426620615352088,3.2528873848887354,7.458418601928308,-6.879687046517322,3.3415361603337668,-9.437792993826577,-3.5398107065704822,-3.392859585631114,-8.791379798998944,-6.724811350719341,5.147812569998214,2.46728000877367,-8.095439839058923,-1.1832105732894864,-3.87269078321897,8.706594728680386,-3.706347450411496,-2.444249348324539
0.002136511981279297
